{
  "projection_phase": {
    "rounds": [
      1,
      2,
      3,
      4,
      5,
      6,
      7,
      8,
      9,
      10
    ],
    "client_losses": [
      [
        -0.18920025444604496,
        -0.15234264067628167,
        -0.14734198728410325,
        -0.16999886878752776,
        -0.17132243692125165
      ],
      [
        -0.18546567072364736,
        -0.16312034346840598,
        -0.1547047059626469,
        -0.17587206211677595,
        -0.1756706712943203
      ],
      [
        -0.18881884189372394,
        -0.16433340724218976,
        -0.15745334425578417,
        -0.1766169760322844,
        -0.1743762717588143
      ],
      [
        -0.18908028730893517,
        -0.1608416150239381,
        -0.15937908864257358,
        -0.18042562611635912,
        -0.1756969464462508
      ],
      [
        -0.18922901846827034,
        -0.16237007508223708,
        -0.15549990200366912,
        -0.17932453888193584,
        -0.1756262366408072
      ],
      [
        -0.19013219215175048,
        -0.1626164327290925,
        -0.15844021511353282,
        -0.1771747308508373,
        -0.17699646036017616
      ],
      [
        -0.19090990507028957,
        -0.16629588441415266,
        -0.1604080850338385,
        -0.17946029977504707,
        -0.17313018417770756
      ],
      [
        -0.18943653897168164,
        -0.16327421888709068,
        -0.15901241935912533,
        -0.17759347995236133,
        -0.17570238986855033
      ],
      [
        -0.1883605460033697,
        -0.1627860175615007,
        -0.16071920913241483,
        -0.17862584841114743,
        -0.17552991797151807
      ],
      [
        -0.18979985167317212,
        -0.1614530621604486,
        -0.15830323532863025,
        -0.17859666749706923,
        -0.1759541742269348
      ]
    ],
    "avg_client_loss": [
      -0.16604123762304185,
      -0.17096669071315934,
      -0.1723197682365593,
      -0.17308471270761133,
      -0.17240995421538394,
      -0.17307200624107785,
      -0.17404087169420707,
      -0.17300380940776186,
      -0.17320430781599014,
      -0.172821398177251
    ],
    "best_proj_loss": [
      -0.16604123762304185,
      -0.17096669071315934,
      -0.1723197682365593,
      -0.17308471270761133,
      -0.17308471270761133,
      -0.17308471270761133,
      -0.17404087169420707,
      -0.17404087169420707,
      -0.17404087169420707,
      -0.17404087169420707
    ]
  },
  "final_layer_phase": {
    "rounds": [
      1,
      2,
      3,
      4,
      5
    ],
    "client_losses": [
      [
        1.7358668159673558,
        1.8913720624013381,
        1.9049334254595314,
        1.7530325053414506,
        1.8650481955810163
      ],
      [
        1.6059825339100577,
        1.6825166320258922,
        1.7631005638896828,
        1.624457489624406,
        1.7155654179225177
      ],
      [
        1.5438549230124223,
        1.607496412504803,
        1.7042027479744588,
        1.54907976863719,
        1.6620269672675703
      ],
      [
        1.4960140294250956,
        1.5533053395423022,
        1.6397312794974928,
        1.5214652333696796,
        1.62090824066468
      ],
      [
        1.465293757577631,
        1.5368950564752926,
        1.6155711803892658,
        1.4822818510511884,
        1.592795489344207
      ]
    ],
    "avg_client_loss": [
      1.8300506009501387,
      1.6783245274745113,
      1.613332163879289,
      1.5662848244998502,
      1.538567466967517
    ],
    "global_accuracy": [
      0.4126,
      0.4498,
      0.4738,
      0.4815,
      0.4847
    ],
    "best_accuracy": [
      0.4126,
      0.4498,
      0.4738,
      0.4815,
      0.4847
    ]
  },
  "num_clients": 5,
  "client_data_sizes": [
    11966,
    7011,
    9690,
    11160,
    10173
  ],
  "client_weights": [
    0.23932,
    0.14022,
    0.1938,
    0.2232,
    0.20346
  ],
  "iid": false,
  "alpha": 0.5,
  "best_final_accuracy": 0.4847
}